digraph Tree {
node [shape=box, style="filled, rounded", color="black", fontname="helvetica"] ;
edge [fontname="helvetica"] ;
0 [label="petal width (cm) <= 0.75\ngini = 0.67\nsamples = 94\nvalue = [51.0, 53.0, 46.0]\nclass = versicolor", fillcolor="#fbfefc"] ;
1 [label="gini = 0.0\nsamples = 34\nvalue = [51, 0, 0]\nclass = setosa", fillcolor="#e58139"] ;
0 -> 1 [labeldistance=2.5, labelangle=45, headlabel="True"] ;
2 [label="sepal length (cm) <= 6.25\ngini = 0.5\nsamples = 60\nvalue = [0, 53, 46]\nclass = versicolor", fillcolor="#e5fcee"] ;
0 -> 2 [labeldistance=2.5, labelangle=-45, headlabel="False"] ;
3 [label="petal width (cm) <= 1.65\ngini = 0.32\nsamples = 29\nvalue = [0, 40, 10]\nclass = versicolor", fillcolor="#6aeca0"] ;
2 -> 3 ;
4 [label="petal length (cm) <= 5.15\ngini = 0.09\nsamples = 23\nvalue = [0, 39, 2]\nclass = versicolor", fillcolor="#43e687"] ;
3 -> 4 ;
5 [label="gini = 0.0\nsamples = 22\nvalue = [0, 39, 0]\nclass = versicolor", fillcolor="#39e581"] ;
4 -> 5 ;
6 [label="gini = 0.0\nsamples = 1\nvalue = [0, 0, 2]\nclass = virginica", fillcolor="#8139e5"] ;
4 -> 6 ;
7 [label="petal length (cm) <= 4.85\ngini = 0.2\nsamples = 6\nvalue = [0, 1, 8]\nclass = virginica", fillcolor="#9152e8"] ;
3 -> 7 ;
8 [label="petal width (cm) <= 1.75\ngini = 0.5\nsamples = 2\nvalue = [0, 1, 1]\nclass = versicolor", fillcolor="#ffffff"] ;
7 -> 8 ;
9 [label="gini = 0.0\nsamples = 1\nvalue = [0, 0, 1]\nclass = virginica", fillcolor="#8139e5"] ;
8 -> 9 ;
10 [label="gini = 0.0\nsamples = 1\nvalue = [0, 1, 0]\nclass = versicolor", fillcolor="#39e581"] ;
8 -> 10 ;
11 [label="gini = 0.0\nsamples = 4\nvalue = [0, 0, 7]\nclass = virginica", fillcolor="#8139e5"] ;
7 -> 11 ;
12 [label="petal width (cm) <= 1.7\ngini = 0.39\nsamples = 31\nvalue = [0, 13, 36]\nclass = virginica", fillcolor="#ae80ee"] ;
2 -> 12 ;
13 [label="sepal length (cm) <= 7.1\ngini = 0.13\nsamples = 9\nvalue = [0, 13, 1]\nclass = versicolor", fillcolor="#48e78b"] ;
12 -> 13 ;
14 [label="gini = 0.0\nsamples = 8\nvalue = [0, 13, 0]\nclass = versicolor", fillcolor="#39e581"] ;
13 -> 14 ;
15 [label="gini = 0.0\nsamples = 1\nvalue = [0, 0, 1]\nclass = virginica", fillcolor="#8139e5"] ;
13 -> 15 ;
16 [label="gini = 0.0\nsamples = 22\nvalue = [0, 0, 35]\nclass = virginica", fillcolor="#8139e5"] ;
12 -> 16 ;
}